is -0.000804 -0.003481 -0.001620 -0.002370 -0.001857 0.002336 0.002603 0.003914 -0.004877 -0.000040 0.004876 -0.001873 -0.001464 0.002806 0.001043 0.004611 -0.001627 0.003795 -0.003716 -0.004414 -0.002510 -0.002979 0.001387 0.000310 0.001032 -0.000872 -0.000134 -0.003938 0.000336 -0.002818 -0.000183 -0.004330 -0.002383 -0.002548 -0.000749 0.003369 0.004317 0.003683 -0.002198 -0.002612 -0.003909 -0.004322 0.000907 0.004911 0.004600 -0.002127 -0.000734 0.000314 0.002649 0.004583 -0.003557 -0.003386 0.003895 0.004912 -0.001164 0.002185 0.002220 0.000943 0.003594 -0.001290 0.003007 0.002340 -0.004770 0.004829 0.000022 -0.003058 0.000664 -0.001509 0.004861 -0.002586 -0.002712 -0.004170 -0.002681 -0.004759 0.002731 0.004690 0.001026 0.002265 0.004201 0.000521 -0.002414 0.004372 -0.000664 -0.003081 -0.003370 0.003963 0.003948 0.001629 0.003263 -0.000131 0.004535 0.003892 0.003683 0.002632 -0.002562 -0.001821 0.000792 -0.003260 -0.003978 -0.004578
better -0.000841 0.004604 0.003981 -0.003816 -0.001797 0.003904 -0.004152 0.004647 0.003274 -0.003343 0.000027 0.004146 0.002792 0.002665 -0.001854 -0.003469 0.004914 0.001542 0.004087 0.004204 -0.000975 -0.001040 -0.002062 -0.003871 0.003366 -0.001652 -0.000460 -0.002565 0.001061 0.004949 0.004379 0.003998 0.004480 -0.000036 0.003717 -0.003803 0.003226 -0.002540 -0.000334 -0.003177 0.000960 0.002370 -0.001001 0.004090 -0.001211 -0.003966 0.000984 -0.004178 0.001366 -0.004898 0.000580 -0.000419 -0.003787 0.001740 0.001921 0.003785 0.002902 -0.001657 -0.004994 -0.001450 0.002473 0.001405 0.004397 -0.002754 0.001434 0.000124 -0.001253 0.002391 -0.004786 0.001053 -0.003335 0.004464 0.004526 -0.002803 0.003638 0.001418 -0.001190 -0.004063 -0.004986 -0.004348 0.001829 0.002742 0.004472 -0.001822 -0.001559 0.000450 -0.001621 0.000189 -0.000152 0.004505 -0.001804 -0.001671 -0.001265 0.004020 0.003314 0.000530 -0.002437 -0.004187 0.001409 0.000168
than -0.000471 0.001651 0.004001 -0.003036 0.003634 -0.000390 -0.001412 0.004465 -0.001901 -0.002293 0.002413 -0.000167 0.001363 0.001773 -0.003713 0.004710 -0.000978 0.002178 -0.002942 -0.004095 -0.001412 -0.001400 0.004586 -0.004694 0.001520 0.000695 -0.000575 0.003985 -0.001615 0.003630 -0.001387 0.002953 -0.003544 -0.001991 0.002129 0.003713 -0.001081 -0.004340 0.003706 0.000531 0.001377 0.004113 0.000293 0.004009 -0.000761 -0.000449 -0.002486 -0.002290 0.001434 -0.002531 -0.004107 0.003242 0.002771 -0.000806 0.002585 0.002071 -0.003223 -0.002214 0.003583 -0.004750 0.000790 -0.002064 0.004821 -0.003249 0.002089 0.003606 -0.004929 0.004302 -0.004263 -0.004945 0.000394 0.004828 -0.004880 -0.000957 0.004492 0.003853 -0.002816 0.001856 0.002425 -0.004240 -0.003052 -0.004285 -0.002094 0.000282 -0.004398 0.003488 0.002273 -0.004834 -0.001528 0.002487 -0.003895 0.000361 0.000205 0.001391 -0.002825 0.000447 -0.003909 -0.002642 0.000708 0.001093
. 0.004474 0.003847 -0.004677 -0.000834 0.002212 -0.000191 0.003654 0.001941 -0.003225 -0.003291 0.004864 -0.001472 0.003139 -0.003643 -0.003622 -0.000864 0.003679 0.000486 -0.001490 -0.003091 0.003751 -0.003251 0.000462 -0.001615 0.000728 0.003893 0.003725 -0.002077 0.004182 -0.000440 0.003016 0.004447 -0.003147 0.001761 -0.002602 0.003553 0.001304 0.004079 0.004580 0.002729 0.003466 -0.004394 0.000716 0.004001 -0.004453 0.001639 0.003130 -0.001645 0.002960 -0.001866 -0.000859 -0.003038 0.003068 -0.003517 -0.003120 0.004077 -0.002230 -0.001002 0.000332 0.001161 0.001877 0.004313 0.003498 -0.003299 0.002539 -0.004381 -0.004157 0.002040 0.002195 -0.000386 -0.001121 -0.001053 0.002567 -0.004485 -0.002855 0.000951 0.000974 -0.002296 0.002731 0.004784 -0.001859 0.003906 0.004293 -0.004829 0.001570 -0.003808 -0.001405 0.002480 -0.003150 -0.000985 -0.000536 0.002914 0.000958 -0.000672 0.002766 0.004987 -0.001047 0.004710 0.002523 -0.004997
beautiful -0.000821 0.001998 0.002853 0.002997 -0.001512 -0.002139 0.000711 0.004654 0.000627 -0.002207 -0.001368 0.000633 -0.000358 0.004711 0.000882 -0.004212 -0.002808 -0.001800 0.002279 -0.003796 0.001780 -0.003069 -0.003525 0.001342 -0.001818 0.001710 -0.000684 -0.003495 0.002554 0.003500 -0.004376 -0.002380 0.004605 0.003143 0.002265 -0.001470 -0.002852 -0.003516 0.002319 -0.000702 0.002165 0.002402 -0.004121 0.002433 0.003847 -0.002368 -0.002346 0.004451 0.002131 -0.000418 -0.001975 0.001984 -0.003338 -0.001265 0.004855 0.001527 -0.000698 0.004410 0.002188 0.002676 0.002658 0.002322 -0.000371 -0.003924 -0.004717 -0.002552 -0.004820 0.003021 0.003600 0.003787 -0.004714 -0.002238 -0.003424 0.002853 -0.004405 -0.002439 -0.004527 -0.000688 0.000836 0.000227 0.000249 0.002885 0.001428 -0.003505 -0.003296 0.000525 0.002794 0.000026 -0.000839 0.004749 0.004922 -0.002603 0.003645 0.002876 -0.003309 0.001891 -0.003141 -0.000233 0.001228 -0.002464
ugly 0.001289 -0.004976 0.001884 -0.003762 0.000451 0.001974 0.004684 0.000106 0.004541 -0.004218 0.002889 0.003625 0.002391 0.003008 -0.003061 -0.001997 0.002847 0.004204 0.003314 0.000616 0.001951 -0.001138 0.003148 0.001930 0.003462 -0.002245 -0.000399 -0.003232 -0.002797 -0.002344 -0.001231 0.000703 0.001952 -0.004996 -0.003075 0.002857 0.003473 -0.000892 -0.000078 0.003762 -0.004255 -0.002880 0.000315 -0.000949 0.003346 -0.003818 0.003752 0.004107 -0.002812 0.000412 -0.003242 0.003338 0.004839 -0.004279 0.004814 0.002493 0.002228 0.000965 0.001546 -0.000903 0.001334 0.001999 -0.003137 -0.000390 0.002123 -0.001918 -0.002143 -0.004414 0.000626 -0.003971 0.001262 -0.002023 -0.003381 0.004844 0.001250 0.004087 -0.001101 -0.003147 -0.003099 -0.001784 0.001890 -0.004913 -0.001495 -0.002255 -0.003167 -0.004373 0.001632 -0.000059 0.003084 -0.000594 -0.002027 -0.002183 -0.001228 -0.000261 0.000674 0.003827 0.004172 -0.002271 0.002209 0.002061
explicit 0.004302 0.001945 -0.004973 0.001759 0.002450 0.004992 0.001604 0.003204 0.002115 -0.002431 0.001832 -0.001396 0.000256 -0.002451 0.000411 0.002871 0.002892 0.001626 -0.003565 -0.002881 -0.002222 -0.004376 0.003155 0.003177 0.001173 -0.004771 0.003264 0.000516 0.001853 -0.001449 0.003430 0.000405 -0.001934 -0.001202 -0.002692 0.002925 -0.001630 -0.004281 -0.000421 0.004637 -0.002243 -0.000926 -0.002031 0.003614 -0.002718 0.001549 0.002008 0.001842 -0.004343 -0.003340 -0.002094 -0.004578 0.003881 0.000333 -0.000613 0.002990 -0.001542 -0.001322 -0.004516 0.003840 -0.002001 -0.001730 0.003029 0.004858 0.003841 -0.001440 -0.002187 -0.001265 -0.001613 0.001792 0.004289 -0.001579 -0.002146 0.004289 0.001577 -0.002982 0.004505 0.004175 -0.002581 -0.001893 0.004451 0.004485 0.004552 0.003443 -0.002028 0.003102 -0.005000 -0.000387 0.000173 -0.004031 -0.001646 -0.002911 0.003909 0.002569 -0.000970 0.002792 -0.001668 0.000031 -0.004012 0.002187
implicit -0.003369 0.004688 -0.000799 -0.004454 -0.002221 -0.004477 0.004895 -0.000816 0.003020 0.001174 -0.000645 -0.003479 0.001500 0.004095 0.000645 -0.004304 -0.004477 -0.000176 0.004423 -0.000241 0.002125 0.001803 -0.003651 -0.002212 0.001381 -0.004979 0.000400 -0.004641 0.003467 -0.003440 -0.001690 0.000209 -0.004073 -0.003347 -0.004528 -0.003586 -0.001309 -0.004012 0.003616 -0.001920 0.003245 -0.003661 -0.000220 -0.001671 -0.000080 0.002704 -0.002749 -0.000624 -0.003360 -0.003305 0.004107 0.004934 0.001515 -0.002992 0.004827 -0.004947 -0.000860 0.003836 0.003770 -0.003171 0.003693 0.004773 0.001744 -0.004469 0.003354 -0.001137 0.004863 -0.004030 -0.003318 0.003681 -0.001275 -0.003807 0.002190 -0.001783 0.000235 -0.001003 -0.001362 -0.002676 -0.000027 -0.003587 0.002343 -0.004740 -0.002957 0.001711 0.002745 0.004762 0.003391 -0.002597 -0.004833 -0.002909 0.002255 0.002763 -0.003509 0.002121 0.000969 0.004828 -0.002008 -0.000313 -0.004942 -0.000209
