8 100
is -0.0008042901 -0.0034810533 -0.0016195503 -0.002369515 -0.0018567946 0.0023356737 0.0026029581 0.003914059 -0.0048771356 -3.956281e-05 0.0048759137 -0.0018726704 -0.0014643901 0.002806498 0.001043249 0.0046114195 -0.0016271757 0.0037948112 -0.003715716 -0.0044139633 -0.0025104673 -0.0029790038 0.0013869468 0.00031047862 0.0010324123 -0.00087167195 -0.00013355959 -0.003937694 0.00033557523 -0.0028182596 -0.00018346323 -0.0043297163 -0.002383065 -0.0025475107 -0.00074929197 0.0033693397 0.0043170108 0.0036833915 -0.0021984633 -0.0026119114 -0.003909104 -0.0043224455 0.0009070506 0.004910827 0.004600345 -0.0021266595 -0.00073373853 0.0003141475 0.0026490649 0.0045828293 -0.0035574546 -0.003386203 0.0038953042 0.0049118265 -0.0011639 0.0021852255 0.0022202642 0.0009432377 0.0035940106 -0.0012904137 0.0030074576 0.0023395477 -0.004769615 0.0048294463 2.1919846e-05 -0.0030584692 0.0006638533 -0.0015086479 0.004861142 -0.002586359 -0.0027122481 -0.004169842 -0.0026814793 -0.004758516 0.002731227 0.0046900045 0.001026477 0.0022645907 0.0042013247 0.00052107853 -0.0024136244 0.0043716193 -0.0006642222 -0.0030814128 -0.003370274 0.003963235 0.0039476696 0.0016286045 0.0032629413 -0.00013057186 0.0045348476 0.0038922704 0.0036834194 0.0026324128 -0.0025621806 -0.0018208328 0.0007919135 -0.0032596372 -0.0039778985 -0.004578035
better -0.0008413819 0.0046040774 0.0039812503 -0.0038155443 -0.0017969465 0.0039043955 -0.00415239 0.004647073 0.003273839 -0.0033431347 2.6729844e-05 0.0041463207 0.0027920802 0.0026646848 -0.0018536412 -0.0034692779 0.004913699 0.0015420142 0.0040869024 0.004203766 -0.00097477954 -0.0010399492 -0.0020619484 -0.0038710425 0.0033663856 -0.0016523155 -0.0004597275 -0.0025647627 0.0010606493 0.004949158 0.00437884 0.003997868 0.004479889 -3.6165122e-05 0.0037166618 -0.0038032015 0.003225598 -0.0025395984 -0.00033445947 -0.003176534 0.0009600112 0.002369766 -0.0010010123 0.004089972 -0.0012106806 -0.0039660092 0.0009838761 -0.004178002 0.0013659287 -0.004897995 0.0005802655 -0.00041925182 -0.0037868335 0.0017400784 0.0019207235 0.0037847364 0.0029023183 -0.0016567701 -0.0049937395 -0.0014496874 0.0024731616 0.0014046619 0.0043966607 -0.0027541763 0.0014336754 0.0001235879 -0.0012526854 0.0023908124 -0.0047862255 0.0010533305 -0.0033353295 0.004463804 0.0045259097 -0.002802566 0.0036377788 0.0014180909 -0.0011896327 -0.0040627182 -0.0049855416 -0.004348174 0.0018286813 0.0027416737 0.0044718687 -0.0018224693 -0.0015588667 0.0004497772 -0.0016212013 0.0001889115 -0.00015196337 0.0045047663 -0.0018038703 -0.0016708844 -0.0012650324 0.0040197717 0.0033137586 0.0005303751 -0.00243703 -0.004186834 0.0014089255 0.00016820109
than -0.00047115842 0.0016506213 0.004001143 -0.0030358844 0.0036340575 -0.0003902796 -0.0014124869 0.004465208 -0.0019012683 -0.0022934016 0.0024126244 -0.00016723371 0.0013632621 0.0017729986 -0.00371271 0.0047102207 -0.0009781952 0.0021780597 -0.002942226 -0.004094566 -0.0014123293 -0.0013999428 0.004586326 -0.0046943957 0.0015197613 0.0006952006 -0.0005745198 0.0039854473 -0.0016150676 0.0036297448 -0.0013865209 0.0029528793 -0.0035439401 -0.0019907278 0.002128722 0.0037130397 -0.0010805468 -0.004339584 0.0037059716 0.00053055 0.001376916 0.0041127587 0.00029278232 0.004009001 -0.00076060183 -0.00044894306 -0.0024860862 -0.0022896042 0.0014340206 -0.0025310037 -0.0041072667 0.003241516 0.0027705554 -0.000805557 0.002584544 0.0020712807 -0.0032228488 -0.0022143302 0.00358297 -0.0047497973 0.0007901827 -0.0020642166 0.0048214644 -0.00324907 0.0020890734 0.00360593 -0.0049287667 0.0043024374 -0.004263281 -0.0049449503 0.00039350326 0.0048282086 -0.0048796684 -0.00095749553 0.0044923387 0.0038533332 -0.0028159216 0.0018559083 0.0024251493 -0.0042399038 -0.0030521573 -0.004285485 -0.0020938236 0.0002823039 -0.004398044 0.0034883453 0.0022731947 -0.0048341337 -0.001527757 0.0024869265 -0.003894511 0.00036100147 0.00020499872 0.0013906695 -0.0028246348 0.00044743821 -0.0039085154 -0.0026415938 0.000708049 0.0010933846
. 0.004474116 0.003847075 -0.004676571 -0.00083446444 0.0022117745 -0.0001909404 0.0036535938 0.0019407051 -0.0032251156 -0.0032912393 0.004864429 -0.0014716251 0.003138897 -0.0036434291 -0.0036221591 -0.000864171 0.003679035 0.0004856882 -0.001489856 -0.0030910838 0.003751469 -0.0032514634 0.0004615232 -0.0016146789 0.00072766346 0.0038926755 0.0037252356 -0.0020774659 0.0041817804 -0.0004396253 0.003015892 0.0044472823 -0.0031465178 0.0017608879 -0.0026023993 0.0035525607 0.0013043327 0.0040788264 0.004579524 0.0027293025 0.0034662797 -0.004394483 0.0007158592 0.0040007485 -0.0044528795 0.0016388425 0.0031295638 -0.0016453414 0.0029600319 -0.0018661303 -0.0008590334 -0.0030376369 0.0030680886 -0.0035168412 -0.003120244 0.004077297 -0.002230202 -0.0010020752 0.000332129 0.0011607024 0.0018772471 0.00431311 0.0034978162 -0.0032992836 0.0025391155 -0.004380721 -0.004156505 0.002039903 0.0021952756 -0.0003862586 -0.0011211018 -0.0010530943 0.002567495 -0.0044852486 -0.0028546 0.00095111167 0.00097440166 -0.0022961835 0.0027308883 0.0047840057 -0.0018585218 0.0039057748 0.004292649 -0.004829055 0.001569965 -0.0038078716 -0.0014051715 0.0024797847 -0.0031497914 -0.0009849019 -0.00053595094 0.0029138308 0.0009576205 -0.0006722302 0.0027656918 0.0049870717 -0.0010469125 0.004710008 0.0025231214 -0.0049971007
beautiful -0.00082091603 0.0019981829 0.0028532112 0.0029968661 -0.0015120307 -0.0021392058 0.00071052654 0.0046541407 0.0006268092 -0.0022071693 -0.0013678443 0.00063328043 -0.00035772758 0.0047111306 0.00088228495 -0.004211987 -0.0028082235 -0.0017999896 0.002278634 -0.0037957306 0.0017804069 -0.0030686446 -0.0035254552 0.0013424637 -0.0018176532 0.0017101325 -0.0006842946 -0.0034952858 0.002553603 0.003500399 -0.0043762107 -0.0023799958 0.00460515 0.003142864 0.0022652093 -0.0014703644 -0.0028521346 -0.0035158168 0.0023192265 -0.00070158445 0.002164873 0.0024017957 -0.0041214526 0.0024325005 0.003846504 -0.0023684388 -0.0023460244 0.0044506663 0.002130833 -0.00041847592 -0.0019753878 0.0019842621 -0.003338384 -0.0012650022 0.0048552523 0.0015273553 -0.00069808477 0.0044095283 0.0021884013 0.0026760271 0.002658201 0.0023218994 -0.00037070276 -0.003924155 -0.0047166958 -0.0025521847 -0.0048198984 0.0030211715 0.0035998977 0.0037866933 -0.0047137197 -0.0022382329 -0.0034241648 0.0028532676 -0.0044052578 -0.0024386768 -0.0045268913 -0.0006879708 0.00083568244 0.00022659704 0.00024877145 0.0028854501 0.0014282046 -0.0035049717 -0.0032963918 0.00052460143 0.002793505 2.6208405e-05 -0.0008387353 0.004749009 0.0049219583 -0.002602743 0.0036448603 0.002875598 -0.0033087856 0.0018914178 -0.0031410828 -0.00023309088 0.0012279004 -0.0024635934
ugly 0.0012885187 -0.0049755494 0.001883743 -0.0037618198 0.00045104686 0.0019743836 0.0046840543 0.00010597063 0.004540775 -0.0042182025 0.0028885812 0.0036252746 0.0023913295 0.0030077377 -0.003061386 -0.0019965603 0.0028473365 0.0042038024 0.003313668 0.0006157224 0.0019505313 -0.0011381782 0.0031483024 0.0019295634 0.0034619658 -0.0022449677 -0.00039885333 -0.0032317073 -0.0027969708 -0.0023436688 -0.0012311885 0.00070259575 0.001952384 -0.0049955067 -0.0030752122 0.002856507 0.0034728416 -0.0008922758 -7.826866e-05 0.003762425 -0.0042551206 -0.0028798683 0.00031470478 -0.0009488459 0.0033461559 -0.0038177033 0.0037520868 0.0041066464 -0.0028117108 0.00041243396 -0.0032420417 0.0033379523 0.004838533 -0.0042787674 0.004814494 0.0024933564 0.0022284838 0.00096500595 0.0015458727 -0.00090348953 0.0013335814 0.0019989724 -0.0031369335 -0.00039010678 0.0021229691 -0.0019183545 -0.0021428897 -0.0044142213 0.0006263384 -0.0039713457 0.0012616186 -0.0020225947 -0.0033813978 0.004844467 0.0012503475 0.004087267 -0.0011012768 -0.0031466857 -0.0030988432 -0.0017838421 0.0018898728 -0.0049134297 -0.0014949644 -0.0022553445 -0.0031667214 -0.004373011 0.0016317758 -5.9401642e-05 0.0030837879 -0.0005938454 -0.0020273053 -0.0021828844 -0.0012276553 -0.0002611401 0.0006737222 0.0038270992 0.004171612 -0.0022712816 0.002208753 0.0020605668
explicit 0.0043015247 0.0019446339 -0.0049731014 0.0017591467 0.0024498298 0.0049915435 0.0016042795 0.0032038998 0.002114618 -0.0024308115 0.0018323393 -0.0013964644 0.00025560838 -0.0024512333 0.0004114727 0.0028710382 0.0028917638 0.0016260307 -0.0035651682 -0.0028813053 -0.0022220921 -0.0043757157 0.0031546284 0.0031769678 0.0011733162 -0.0047711185 0.0032644037 0.0005155433 0.0018533965 -0.0014493744 0.0034302243 0.00040487916 -0.001934135 -0.0012018376 -0.0026916515 0.0029252497 -0.0016301812 -0.0042808293 -0.00042066886 0.0046370905 -0.0022433107 -0.0009257432 -0.002031402 0.003614282 -0.0027178382 0.0015494782 0.0020082188 0.0018422476 -0.004342932 -0.003339999 -0.0020940446 -0.0045781923 0.0038808403 0.0003333729 -0.00061323843 0.0029903005 -0.0015416463 -0.0013215397 -0.0045163105 0.0038397142 -0.0020008658 -0.0017300649 0.0030289604 0.004858287 0.0038408015 -0.0014395998 -0.002186575 -0.0012652375 -0.0016129034 0.0017917647 0.004288801 -0.0015785437 -0.0021460708 0.00428896 0.0015765054 -0.0029824318 0.0045049665 0.0041747163 -0.0025810504 -0.0018931356 0.004450726 0.0044847466 0.004552225 0.003443183 -0.0020275274 0.0031017025 -0.0049998444 -0.0003870902 0.00017295423 -0.004030892 -0.0016459031 -0.0029106457 0.0039090677 0.0025691506 -0.00097014505 0.0027915179 -0.0016677139 3.0503377e-05 -0.0040121125 0.0021872236
implicit -0.0033690995 0.0046884036 -0.0007988119 -0.004454492 -0.0022206537 -0.0044773505 0.004894843 -0.0008158321 0.003019824 0.0011743444 -0.0006449051 -0.0034790642 0.0014998359 0.00409539 0.0006452145 -0.0043042446 -0.0044773696 -0.00017634704 0.004423207 -0.00024101397 0.0021248804 0.0018033194 -0.0036507414 -0.002211548 0.0013811414 -0.0049792575 0.0004004232 -0.004640893 0.0034672373 -0.003440185 -0.0016895258 0.00020852673 -0.0040729656 -0.0033470269 -0.004528249 -0.003586381 -0.0013091471 -0.00401248 0.0036155006 -0.0019204575 0.003245264 -0.003660527 -0.00021996298 -0.0016711266 -7.9540194e-05 0.0027035319 -0.0027494137 -0.0006241669 -0.0033601515 -0.003304763 0.004107009 0.004934479 0.0015151503 -0.0029922526 0.004826832 -0.0049474873 -0.0008596669 0.0038364683 0.0037700736 -0.003171421 0.0036934966 0.0047733057 0.001743542 -0.0044691684 0.0033535825 -0.0011367013 0.004862802 -0.0040304875 -0.0033180576 0.0036812122 -0.0012746053 -0.0038072574 0.002189817 -0.0017830846 0.00023547532 -0.0010026778 -0.0013623883 -0.0026755275 -2.7132117e-05 -0.0035867142 0.0023426446 -0.00473964 -0.002956612 0.0017105354 0.0027451108 0.00476203 0.0033912887 -0.0025972617 -0.0048326845 -0.0029093004 0.002254919 0.0027632522 -0.0035089904 0.002121013 0.00096903177 0.0048275464 -0.0020084062 -0.00031345326 -0.0049423287 -0.00020945724
