12 100
system 0.004154505 0.0039553815 -0.0048840377 -0.00028909874 0.003672841 0.0009774477 0.0049940106 0.0021334763 -0.000435757 0.0028718957 -0.0027466002 -0.0028724805 0.0037358955 -2.5957392e-05 -0.00030024906 0.0014530584 -0.0034132558 -0.0009079775 0.0049938364 0.0005753267 -0.0031646707 0.0006340283 -0.0025302274 -0.0027203637 -0.001777271 -0.00043104944 -0.0042067007 -0.003046318 -0.0011582857 -0.0024882113 -0.0013387542 0.002204115 0.0033747146 -0.00013784283 0.0013489374 -0.0020383548 0.00453734 0.0026401177 0.000782801 -0.00043592972 0.00015958535 0.0025440066 0.0014960791 0.0014532855 0.004934382 -0.00074855576 0.004627345 -0.001279238 0.0036365893 0.0016931018 0.004252092 -0.0017133288 -0.0021985036 0.00269542 0.0034396108 0.004637647 0.0039046055 -0.0031330842 0.0019598 0.00013140785 0.00070422434 0.00096205034 0.0010987655 -0.0021138822 0.0030421622 0.0008201254 0.0039479984 0.0012313551 0.0022278328 0.0016553331 0.0017105521 0.00034295904 0.0012783369 0.00070767594 0.004258381 0.0033605886 0.004338423 -0.000525863 -0.0045521203 -0.0011944132 0.003879648 -0.0010564665 -0.00011780496 0.0030011677 0.0018806104 -0.0009606083 -0.0032576132 0.003849868 -0.00043508908 -0.0047353916 -0.0035127506 -0.00079972955 -0.0027105839 -0.00466009 -0.0031310911 0.0012157046 -0.0009794356 -0.0015942977 -0.00040418064 -0.0019640396
user -0.0017434709 0.0020990807 -0.00020970851 -0.0018925563 -0.0030742988 -0.0018229177 -0.003727458 0.0041943835 -0.0006042948 -9.036397e-05 -0.0032632996 -0.0048150634 0.0048651905 -0.00017808352 -0.0031662378 -0.0046693734 -0.0020089417 -0.0023415522 0.0045445724 -0.0037013893 -0.003972545 0.00013440146 0.00234458 -0.002292522 -0.00122743 0.004558693 0.0011413934 0.002045636 0.0005637189 0.0010764746 0.0033905124 0.0018245808 0.001282669 -0.0047064805 -0.0044661053 0.0037752837 -0.004425702 -0.0030577176 0.0004345439 0.002199368 0.002567183 0.0009825276 0.00026997805 -0.0020438966 3.5757574e-05 -0.0026906393 0.0034011602 -0.002080899 -0.0045007635 0.0041407375 -5.207502e-05 0.0030294403 0.0049971044 0.0019339194 -0.004572153 -0.00040006317 0.0030839571 0.004156695 0.00082064973 -0.00028958195 0.0039807204 -0.0013067098 -0.00030411838 0.00040989366 0.0003274999 0.0038994867 -0.0042279367 -0.0014296797 0.0026209748 -0.0010317684 0.00092760584 0.0019246298 -0.0036911787 -0.0041122152 0.0026540689 0.0039214836 -0.0048571057 0.003150142 0.0030709924 0.00319613 0.002663902 -0.003815944 -0.001220134 0.0016674822 -0.0045695878 0.002039357 0.001104868 -0.0028276332 0.0046132584 0.0011661554 0.00095924205 -0.0028216187 0.0020323317 -0.0048527103 0.004547558 -0.004903578 0.0020275728 -0.0007051408 -0.00052014843 -0.004292353
trees 0.0036547375 -0.0024498347 -0.0010742 0.0021959837 -0.004631156 -0.00067572924 -0.0013885683 0.001523161 -0.0049135936 -0.0038865106 0.0040717535 -4.1506504e-05 0.0023318904 -0.00030567808 -0.0024848487 -0.0017648538 -0.0009565959 -0.004543297 0.003041247 0.003233797 0.0032339308 -0.003974452 -0.0015684316 -0.0027414763 -0.0028233707 0.0042158123 0.0013234316 0.0036548672 -0.0020753536 0.0034807744 0.0032347965 -0.0033426455 0.0018654787 -0.0044752127 0.0044369213 0.003988216 -0.00010305641 -0.0014777587 -0.001951034 -0.00069407036 -0.0038673389 0.0038430304 0.0022535496 -0.0030505303 -0.00072740007 -0.003575477 0.001799426 0.00067889615 0.0005897134 -0.0015657033 0.0018052815 0.0016339974 -0.0032209004 -0.0036592747 0.0022097735 0.0025581366 -0.0049215956 0.0012999089 0.001313136 0.00055428024 -0.0009568718 -0.003318018 0.00042841872 -0.0035231113 -0.0042294236 -0.0011642223 0.0013871366 -0.003024307 -0.003063381 -0.0025988633 0.0022297038 -0.0039172797 0.0009938068 -0.003776655 0.00031715957 -0.0026381598 0.0013787908 -0.0023775178 -0.0035374057 0.001375381 0.0029216672 0.0013488656 9.477685e-06 -0.003537883 -0.00075992005 -0.0020395154 -0.0019913048 -0.0001731605 0.0018388928 0.0012712532 0.0014417839 -0.0036579322 0.0012214452 0.0033024438 0.003057967 0.002998259 0.0047110766 0.004767191 -0.004575331 -0.0017985615
graph 0.000112121015 -0.00071402546 0.0033547555 -0.004306421 -0.0023722718 -1.642687e-05 0.0027026993 0.0046102228 -0.0024990372 -0.0036387483 0.0021622642 0.0021799197 -0.0018344303 0.003583336 0.0029583403 0.0042163893 0.0037032824 -0.0029983346 -0.0020990474 0.0029196762 -0.002846472 -0.0031045475 0.004177436 0.0022377463 -0.004030176 -0.0027158044 -0.0020337112 -0.0015071767 -0.0014572751 -0.0043589603 -0.0006874416 -0.001872745 -0.0010169434 -0.00053598377 0.0045319176 -0.002138228 -0.0018595248 -0.004478364 0.0035268501 -0.0030523485 0.003545449 -0.0038592534 0.0047423663 -0.0017155712 0.0032892055 -0.0030285206 0.004039652 -0.0018454973 -0.003692145 -0.004548829 -0.0015804069 0.0024087525 -0.0039252453 0.0033101449 -0.0010178125 -0.00085986865 0.004067255 0.0005561167 0.0040728385 -0.0022640815 -0.0027136947 0.0042393627 0.0016489708 -0.0014669925 0.0043359473 -0.002322083 0.003247346 0.00063629524 0.0027883393 -0.0023193543 0.0021356817 -0.004313211 -0.0021831975 -0.00408915 -0.0044246837 0.0042725317 -0.0037526418 -0.0035563107 0.0017101944 0.0036884348 -0.0024226848 -0.0019767985 -0.0046577053 0.000545046 -0.0032365702 0.0036274095 0.0037125973 -0.001876604 0.0013898936 0.0022747559 -0.0047666896 0.0015850066 0.0017715181 -0.0011004122 0.003652036 -0.0018066015 -0.0012381005 -0.0036861289 -0.0007851014 0.0023769755
human -0.0020797404 -0.0040847794 -0.0045304894 0.00043406812 0.004264941 0.002932101 0.00082002574 0.0013127945 -0.0011299426 -0.0020091224 0.001233073 -0.0035880664 0.0035298944 0.0029776618 -0.0012017691 0.004091954 0.0028373415 0.001991375 0.0034477296 -0.0029283518 0.0041869655 -0.0003935652 0.0035900087 0.00431953 -0.00095114467 -0.004957982 0.001482481 -0.00091630477 -0.0013235452 -0.0043809754 -0.0024484936 -0.0012726433 -0.0020189174 0.0019232542 0.0046549602 0.004323622 -0.0011007144 0.0049348497 -0.0006841202 -0.0009488573 -0.000258072 -0.0032864104 -0.0005873764 -0.0014117344 0.0010226523 0.002233813 -0.003748239 0.0024603575 -0.0020703967 -0.0028778368 0.0030665072 -0.0020605419 -0.002792711 -0.00038561254 0.0036916782 0.0007722395 -0.001699415 0.0011613054 -0.0018790367 -0.004010379 -0.004100768 0.004983826 -0.0017313855 0.0029723423 0.0026134255 0.00033309622 0.0028332684 0.0021029839 0.0043314327 0.0029053525 -0.002408507 -0.0037666135 0.003942772 -0.0006744867 0.0039613997 -0.0012930942 -0.0030596738 -0.004163211 0.003866366 -0.0024873605 -0.0014078422 0.0004196421 -0.0038051815 -0.0033603618 0.004646701 -0.00079182815 -0.000896569 0.004505983 -0.0009733188 -0.0011087756 1.3006522e-05 0.00082003715 0.00085865316 0.0035806212 0.0035775043 -0.004531453 -0.0031958437 0.0009969783 -0.0026209676 0.00075551413
interface -0.0028901927 -0.0013437589 -9.060321e-06 -0.004396167 0.00059324264 -0.0040477323 0.0028134116 0.001961072 0.0038984807 -0.0016310213 -0.00018343434 0.0040945318 -0.0048922505 -0.0013421578 0.002959323 0.004971545 -0.00069688755 0.004565724 -0.0021795419 -0.0049185734 -0.0023170826 -0.0018744573 0.003994152 -0.003363227 -0.0020090172 -0.0032004334 0.000642016 0.0045049977 -0.0021695725 -0.0016174885 0.002460814 -0.00359242 0.0038087463 -0.0012696353 -0.0041250084 0.001621121 0.0014015118 -0.0031198272 -0.00025172977 -0.0043787286 -0.0013668452 -0.0023204477 0.0016375013 0.004858083 0.0036901808 0.0038456134 0.0005796767 -0.00427994 -0.0026962212 0.003806379 -0.004982424 0.0048537464 -0.0004486179 0.004152061 -0.0031136372 0.0016000753 -0.0012332827 -0.0016589072 0.0014594407 -0.0003954644 0.0015379195 0.00062153663 -0.0005049953 0.0013250941 0.0024032665 0.0033848376 -0.0003478935 -0.00073333137 0.0038658336 -0.0013166823 0.0019848098 -0.00419003 -0.00067971123 0.00064567797 0.0018878016 -0.001677868 0.004166553 0.0042703785 0.0033887313 0.0010746565 0.0013972515 -0.0029163358 -0.00074433483 0.0032314467 -0.004836791 0.0015673871 0.0031036783 0.0035847065 -0.0041682646 -0.0032609343 0.0003792735 -0.004246017 -0.004948018 -0.002228107 0.0014652585 0.0022160073 -0.0007794726 0.0012713545 0.004007371 1.1740552e-05
computer -0.002536069 -0.0010957541 0.0047577587 0.0036478837 -0.0036023878 -0.0045195245 -0.0023240147 0.0035079098 -0.001200183 -0.0011965416 -0.0040089376 0.0048436862 0.0011622389 0.0019515357 0.0017946945 0.0033412403 0.004711881 0.0028021247 0.00077339576 -0.0029643688 -0.00056090404 0.0026700736 0.0015758508 0.003688367 0.0006602872 -0.0039970814 0.0018235026 0.0031477963 -0.0034365966 -0.0024028355 -0.0015183883 -0.0044663534 0.0037616596 0.0003878886 -0.0018379365 0.0009457128 -0.004814745 -0.0028011457 0.0031371906 -0.0034808072 0.004635986 -0.00015672276 -0.004591999 0.0011022857 -0.0006255887 0.003280623 0.002770695 0.0019813771 0.0047941045 0.002678013 -0.0021889266 0.0015006948 -0.0027298064 0.002173069 -0.0033300556 -0.004624016 0.002820232 0.0026272084 -0.000663768 0.004611321 -0.0006667733 -5.9867067e-05 0.00054153294 -0.00028690253 0.0020712959 0.00044309415 -0.0020941824 -0.0031709229 -0.0034486882 -0.002657685 -0.00023014357 -0.0031027084 -0.0019546568 0.0035986707 0.0022109991 0.002076432 0.0014312018 -0.0036616253 -0.0009984149 0.004375891 0.00089708145 -0.004352571 -0.00094170927 -0.0037389607 -0.0013899147 -0.003237321 0.00044675096 -0.0042116772 -0.0018372689 0.0031123979 0.0026791773 0.0034534396 0.0044531957 0.0048073493 -0.00029972938 -0.00070392166 -0.0011387572 0.0004249834 0.0020775741 0.003957258
survey -0.00041936027 -0.001927597 -0.0022354946 0.0035460028 -0.004767249 -0.0032305159 0.0047683455 -0.00089918554 -0.00053469575 -0.0031528713 -0.004885334 -0.00037917678 -0.0023065482 -0.00026918855 -0.0029067022 0.004549467 0.003074698 -0.003028472 -0.0013184779 -0.00024607935 -0.0009544199 -0.0015908482 0.001295372 0.0047880765 -0.001817558 -0.002516674 0.0031932818 -0.0002214117 -0.0016190138 0.00014011632 -0.00048326355 -0.0042145764 -0.0024340807 -0.0014299812 0.0015281686 0.0011433627 -0.0026157605 0.0045945253 -0.0026324869 0.0037017476 8.773154e-05 -0.0046742535 -0.0033111186 0.0039012795 0.0018410691 -0.004158446 -0.0038046695 0.002079842 0.0045864875 0.004836125 0.0040674885 0.0044662515 -0.0038282806 -0.0034967305 -0.0027063312 0.00095931767 0.001146437 0.0040485295 0.002327715 -2.5325544e-05 0.0047254865 -0.0018471325 -0.0032839125 -0.0004437599 -0.001008233 -0.0043309825 0.004419859 -0.0014702528 -0.00419106 0.004026746 -0.0016345691 0.00419415 -0.004293022 0.003752582 -0.0016091834 -0.00042510254 -0.004281173 0.00093476457 0.0012968484 -0.0021504592 0.004812171 -0.002813455 0.0044092475 -0.0043182066 0.0010125464 -0.0031641372 0.0035530578 -0.0001220301 -0.00018406249 -0.002562113 -0.0042839027 -0.0028050214 -0.0030055535 -0.004124233 -0.0026364168 -0.0013823798 -0.00474075 0.00040956168 0.0022441882 0.002405229
response 0.0045485217 -0.0022600896 0.00069565047 0.0039949454 -0.000105885316 0.00063282717 -0.00072115945 -0.002061777 0.002759555 -0.00054419646 0.00054514495 -0.000244307 0.004760213 -0.0025760357 0.0005637128 -0.00037669044 0.0030097743 0.0020544152 0.004473177 0.00060929795 -0.0019263601 -0.0044319443 -0.003392461 -0.0019755717 0.0037480465 0.0012230224 0.00025924938 -0.00059521064 0.0026708131 0.0046630185 0.0020005587 -0.00220038 0.0038947477 -0.0021229472 -0.004410763 0.004580654 -0.004741871 0.00020625639 0.0030760288 0.0047996375 -0.0009415672 -0.0042221397 0.00043541123 -0.00074095215 -0.0024347825 -0.0005530694 0.0026447398 -0.000318907 -0.0047470927 -0.0016340401 -0.002757659 0.0029891722 0.0011129646 0.0037965353 0.0008568028 0.0019405334 -0.0034575502 -0.0033754436 0.0049798912 -0.0007861993 -0.0016066586 -0.0013782369 0.0025446105 0.004837742 0.0045678434 -0.0017986911 0.0011435674 -0.0013920852 0.0033758269 -0.0003751158 0.0014500908 0.0049528126 0.000829038 0.0025701323 -0.0008895464 0.00095238147 0.003881418 0.0011512132 -0.0046860934 -0.0043649296 -0.00050536613 0.00029295962 -0.0047445623 0.000529441 0.0018938916 -0.0012999142 0.004626528 0.0013498352 0.0015647162 0.0012892218 0.003791375 -0.0003499328 0.0035357065 0.0036072617 -0.004218225 -0.00092775206 0.001509116 0.0012985263 -0.004100463 0.0033033763
time 0.0024597507 0.0007388641 -0.0016201499 0.0033171736 0.0041642096 -0.00058567943 -0.0034096318 -0.0021275948 0.0036063725 0.000116430594 -0.0011084063 -0.0029541226 -0.0029245059 0.0022233322 -0.0029639613 0.00013683553 -0.0004865169 0.0016622747 -0.0027133722 0.0015733966 -0.0043518036 -0.0036125374 0.0030611276 -0.0015818015 0.0019387528 0.0047700615 -0.0010879136 0.0022167205 0.002145468 0.0039228047 0.0036643436 -0.0024243444 -0.0010722784 -0.002867495 0.004236364 0.002264806 0.0009161518 -0.0020667564 -0.00427274 -0.001174323 -0.004457597 -0.0012520435 -0.0039024362 0.0048016775 -0.0044963653 0.00037548316 -0.0017381674 0.0046344716 0.0003917108 0.0020411976 -0.0046495586 -0.003458932 -6.615487e-05 -0.0014518152 0.0029725863 0.002171316 -0.0034402432 0.0002978428 -0.0003812304 0.0008217082 0.004979934 -0.0041540973 -0.0023721473 0.0009320216 0.002447154 0.003965393 -0.00490443 -0.004821548 -0.0016332722 -0.004443708 0.00012990632 -0.00024832896 -0.0026163787 0.0011273928 0.000496681 0.0017939402 0.0008153233 0.0027182538 0.0017904183 0.004499726 -0.0028337021 0.00014906452 0.004760178 -0.0014744219 -0.004026563 0.0046265554 -0.0045606038 0.004459529 0.0010686489 -0.0045367717 0.0016202633 0.0044146655 0.0019693088 -0.0044353 0.0031011798 -0.0014856806 -0.0032256076 -0.0019102099 -0.0024568099 0.0006815177
eps 0.0017953261 -0.0016644308 0.004442407 0.0034737664 -0.0013701419 0.004724964 -0.00329705 0.00035736745 -0.004182574 0.0020125338 -0.003081523 0.00188291 -0.0049958816 0.0033190583 0.003165895 0.0019921307 -0.0030128954 0.002587185 0.0026909078 -3.1317257e-05 0.0015753997 0.0026680746 -0.0018714548 -0.003601596 -0.00087850407 0.0030754823 0.0005309668 0.0028400961 -0.004027142 0.0012151358 0.00011801238 -0.0017666185 0.0015230211 -0.0009260166 -7.103315e-05 -0.000161649 0.0045009665 0.00031667645 -0.0036300686 -0.0018257799 -0.0006020443 -0.000789356 -0.0047318633 -0.001187124 0.003830694 0.0009035708 0.00036940776 -0.00010753994 0.0029988645 0.002917254 -0.0031023482 0.0045965808 0.0019226623 -0.00011344223 0.0022559436 0.0012296523 0.0013866085 0.00052287744 0.0042665224 0.00050408725 0.00069575134 -0.0009496229 -0.0024228527 0.00088465016 2.1872778e-05 0.0047668116 0.0048371362 -0.000691965 0.00482141 -0.0031454535 -0.00066327397 0.0023182437 -0.0027359738 0.0020551293 -0.0047081527 -0.0006507268 0.00452691 0.00426882 0.0025955262 0.0026419251 0.001219502 0.0043094875 -0.0032009147 -0.0014053859 0.0015952925 0.0047090487 -5.418338e-05 -0.0044831056 0.004217893 -0.004746803 -9.621253e-05 -0.0032464669 -0.0013925148 0.003328242 -0.0030764742 -0.0015411581 0.002236005 0.001437837 -0.0012121884 -0.0036113686
minors 0.0042672344 -0.0018103996 0.0013701755 0.0031951708 0.0009898046 -0.0038555972 0.0017382305 0.0019121052 0.002474242 -0.0016486633 -0.0035474156 0.0048655043 0.004552494 0.0047362526 0.0027995647 -0.003383284 -0.0040678065 0.003485115 0.0037860367 0.004859371 -0.00075782347 -0.004755108 0.002629013 0.004344592 -0.001469348 0.0021367306 0.004883991 0.0040059118 1.8905097e-05 -0.0045632715 -0.00407293 -0.0015368464 0.00089049956 0.0012677518 -0.0017640948 0.0038083664 -0.0028861235 0.003263383 -0.0016719954 4.893216e-05 -0.0029566986 -0.0033396268 -0.0031008692 0.000395962 0.0032363937 -0.0014447654 -0.0016395551 0.0034985398 -0.0022002973 0.0011902201 -0.0016932039 0.0021700212 -0.0012389699 -0.0047077737 0.0010837172 0.0042925007 0.0015909584 -0.0040344168 0.00023613374 0.0026832267 0.00066670985 -0.0031806324 -0.0043732664 0.0039443737 -0.0012903605 0.0038157303 -0.00233427 -0.0038353617 0.0021471574 0.004431833 -0.004340443 -0.0015454043 0.0030248913 0.004777725 -0.00015505395 0.0030679726 -0.0012893787 -0.0040176422 2.3331158e-05 -0.0045470856 0.0047567827 0.0022136811 0.0016925862 -0.0012590081 0.0012419128 0.0015478701 -0.0034134155 -0.0025133693 0.0032879938 -0.004347617 0.004248816 -0.0014749315 -0.003097035 -0.004835823 -0.00263701 0.004835793 -0.0028979636 -0.002051052 -0.0014007674 0.0036097702
